<?xml version="1.0"?>
<opencv_storage>
<stage11>
  <maxWeakCount>12</maxWeakCount>
  <stageThreshold>-4.4193860888481140e-01</stageThreshold>
  <weakClassifiers>
    <_>
      <internalNodes>
        0 -1 88539 1.2214123271405697e-03</internalNodes>
      <leafValues>
        4.4471743702888489e-01 -7.2093021869659424e-01</leafValues></_>
    <_>
      <internalNodes>
        0 -1 80795 4.6508382074534893e-03</internalNodes>
      <leafValues>
        1.9052174687385559e-01 -7.6667350530624390e-01</leafValues></_>
    <_>
      <internalNodes>
        0 -1 50619 8.0731865018606186e-03</internalNodes>
      <leafValues>
        -2.3062644898891449e-01 5.0960749387741089e-01</leafValues></_>
    <_>
      <internalNodes>
        0 -1 124264 -5.6389113888144493e-04</internalNodes>
      <leafValues>
        -7.3722779750823975e-01 1.3335971534252167e-01</leafValues></_>
    <_>
      <internalNodes>
        0 -1 138622 7.8660622239112854e-04</internalNodes>
      <leafValues>
        1.1534494906663895e-01 -7.7151018381118774e-01</leafValues></_>
    <_>
      <internalNodes>
        0 -1 134777 -2.6171727222390473e-04</internalNodes>
      <leafValues>
        3.8826310634613037e-01 -2.5803443789482117e-01</leafValues></_>
    <_>
      <internalNodes>
        0 -1 161776 8.8378036161884665e-04</internalNodes>
      <leafValues>
        1.6074508428573608e-01 -5.8368945121765137e-01</leafValues></_>
    <_>
      <internalNodes>
        0 -1 87138 7.6912814984098077e-04</internalNodes>
      <leafValues>
        -3.4928375482559204e-01 2.9310977458953857e-01</leafValues></_>
    <_>
      <internalNodes>
        0 -1 96930 6.4859390258789063e-03</internalNodes>
      <leafValues>
        9.6936866641044617e-02 -9.0283197164535522e-01</leafValues></_>
    <_>
      <internalNodes>
        0 -1 160537 -1.1464002309367061e-03</internalNodes>
      <leafValues>
        -8.4500974416732788e-01 1.0612848401069641e-01</leafValues></_>
    <_>
      <internalNodes>
        0 -1 105888 -1.3759760186076164e-02</internalNodes>
      <leafValues>
        -6.6560053825378418e-01 1.1514455825090408e-01</leafValues></_>
    <_>
      <internalNodes>
        0 -1 140148 -4.6800025738775730e-03</internalNodes>
      <leafValues>
        1.3072006404399872e-01 -7.2243118286132813e-01</leafValues></_></weakClassifiers></stage11>
</opencv_storage>
