<?xml version="1.0"?>
<opencv_storage>
<stage3>
  <maxWeakCount>12</maxWeakCount>
  <stageThreshold>-4.6255365014076233e-01</stageThreshold>
  <weakClassifiers>
    <_>
      <internalNodes>
        0 -1 66529 -2.4180706590414047e-02</internalNodes>
      <leafValues>
        -5.5555558204650879e-01 4.5454546809196472e-01</leafValues></_>
    <_>
      <internalNodes>
        0 -1 72794 -9.2252001166343689e-02</internalNodes>
      <leafValues>
        5.8374905586242676e-01 -1.9986698031425476e-01</leafValues></_>
    <_>
      <internalNodes>
        0 -1 4382 -2.6736076921224594e-02</internalNodes>
      <leafValues>
        4.8586881160736084e-01 -2.1609376370906830e-01</leafValues></_>
    <_>
      <internalNodes>
        0 -1 146930 -1.2566886842250824e-02</internalNodes>
      <leafValues>
        7.9421007633209229e-01 -1.5871874988079071e-01</leafValues></_>
    <_>
      <internalNodes>
        0 -1 149318 4.0125656872987747e-02</internalNodes>
      <leafValues>
        -2.0631298422813416e-01 5.9098911285400391e-01</leafValues></_>
    <_>
      <internalNodes>
        0 -1 154043 -2.9860282316803932e-02</internalNodes>
      <leafValues>
        8.6680817604064941e-01 -1.4610408246517181e-01</leafValues></_>
    <_>
      <internalNodes>
        0 -1 133762 -8.1673526437953115e-04</internalNodes>
      <leafValues>
        4.7273695468902588e-01 -2.3334750533103943e-01</leafValues></_>
    <_>
      <internalNodes>
        0 -1 11857 -2.3086774349212646e-01</internalNodes>
      <leafValues>
        2.7729290723800659e-01 -5.0028640031814575e-01</leafValues></_>
    <_>
      <internalNodes>
        0 -1 108015 1.1058122618123889e-03</internalNodes>
      <leafValues>
        1.6782025992870331e-01 -7.7725976705551147e-01</leafValues></_>
    <_>
      <internalNodes>
        0 -1 145905 -3.1890498939901590e-04</internalNodes>
      <leafValues>
        3.9258486032485962e-01 -3.2817906141281128e-01</leafValues></_>
    <_>
      <internalNodes>
        0 -1 13039 2.1089976653456688e-03</internalNodes>
      <leafValues>
        -2.1949388086795807e-01 5.6372153759002686e-01</leafValues></_>
    <_>
      <internalNodes>
        0 -1 24791 -1.0000692680478096e-02</internalNodes>
      <leafValues>
        6.2773859500885010e-01 -2.1339525282382965e-01</leafValues></_></weakClassifiers></stage3>
</opencv_storage>
