<?xml version="1.0"?>
<opencv_storage>
<stage2>
  <maxWeakCount>10</maxWeakCount>
  <stageThreshold>-5.5531311035156250e-01</stageThreshold>
  <weakClassifiers>
    <_>
      <internalNodes>
        0 -1 20889 -3.8698412477970123e-02</internalNodes>
      <leafValues>
        -5.9420287609100342e-01 5.0131231546401978e-01</leafValues></_>
    <_>
      <internalNodes>
        0 -1 12998 -1.3983781635761261e-01</internalNodes>
      <leafValues>
        -5.2784937620162964e-01 3.0713173747062683e-01</leafValues></_>
    <_>
      <internalNodes>
        0 -1 144394 -3.2801681663841009e-04</internalNodes>
      <leafValues>
        3.9259245991706848e-01 -3.7212431430816650e-01</leafValues></_>
    <_>
      <internalNodes>
        0 -1 59934 -8.5805714130401611e-02</internalNodes>
      <leafValues>
        1.8341645598411560e-01 -7.4352729320526123e-01</leafValues></_>
    <_>
      <internalNodes>
        0 -1 8135 5.3838801383972168e-01</internalNodes>
      <leafValues>
        1.2470527738332748e-01 -8.7039285898208618e-01</leafValues></_>
    <_>
      <internalNodes>
        0 -1 97489 -7.1693971753120422e-02</internalNodes>
      <leafValues>
        -9.6933859586715698e-01 7.1534618735313416e-02</leafValues></_>
    <_>
      <internalNodes>
        0 -1 25785 8.1292465329170227e-03</internalNodes>
      <leafValues>
        -2.1500360965728760e-01 7.1594887971878052e-01</leafValues></_>
    <_>
      <internalNodes>
        0 -1 1471 4.8770308494567871e-02</internalNodes>
      <leafValues>
        -2.0687955617904663e-01 6.2136268615722656e-01</leafValues></_>
    <_>
      <internalNodes>
        0 -1 49727 -2.1184510551393032e-03</internalNodes>
      <leafValues>
        4.2223080992698669e-01 -3.1488743424415588e-01</leafValues></_>
    <_>
      <internalNodes>
        0 -1 30766 -1.3375928997993469e-01</internalNodes>
      <leafValues>
        6.3864332437515259e-01 -2.0501869916915894e-01</leafValues></_></weakClassifiers></stage2>
</opencv_storage>
