<?xml version="1.0"?>
<opencv_storage>
<stage4>
  <maxWeakCount>10</maxWeakCount>
  <stageThreshold>-3.3722233772277832e-01</stageThreshold>
  <weakClassifiers>
    <_>
      <internalNodes>
        0 -1 133393 7.7580643119290471e-04</internalNodes>
      <leafValues>
        4.5864662528038025e-01 -6.4705884456634521e-01</leafValues></_>
    <_>
      <internalNodes>
        0 -1 158355 1.6199504956603050e-02</internalNodes>
      <leafValues>
        -2.2399871051311493e-01 7.0582956075668335e-01</leafValues></_>
    <_>
      <internalNodes>
        0 -1 162238 1.8257345072925091e-03</internalNodes>
      <leafValues>
        3.2903829216957092e-01 -4.0614581108093262e-01</leafValues></_>
    <_>
      <internalNodes>
        0 -1 48125 -2.5360543280839920e-02</internalNodes>
      <leafValues>
        -8.7439048290252686e-01 1.1295449733734131e-01</leafValues></_>
    <_>
      <internalNodes>
        0 -1 146318 -1.7578650265932083e-02</internalNodes>
      <leafValues>
        7.4367123842239380e-01 -2.0622555911540985e-01</leafValues></_>
    <_>
      <internalNodes>
        0 -1 121822 -1.5552276745438576e-02</internalNodes>
      <leafValues>
        4.5680582523345947e-01 -3.8818511366844177e-01</leafValues></_>
    <_>
      <internalNodes>
        0 -1 25448 -1.3336180709302425e-03</internalNodes>
      <leafValues>
        -5.4847681522369385e-01 2.6126936078071594e-01</leafValues></_>
    <_>
      <internalNodes>
        0 -1 130999 3.7890570238232613e-03</internalNodes>
      <leafValues>
        1.4460854232311249e-01 -8.9563906192779541e-01</leafValues></_>
    <_>
      <internalNodes>
        0 -1 41205 -2.8918616473674774e-02</internalNodes>
      <leafValues>
        -8.8677126169204712e-01 1.2203794717788696e-01</leafValues></_>
    <_>
      <internalNodes>
        0 -1 130172 -8.5331092122942209e-04</internalNodes>
      <leafValues>
        1.2309250235557556e-01 -9.1533190011978149e-01</leafValues></_></weakClassifiers></stage4>
</opencv_storage>
