<?xml version="1.0"?>
<opencv_storage>
<stage24>
  <maxWeakCount>18</maxWeakCount>
  <stageThreshold>-6.1739385128021240e-01</stageThreshold>
  <weakClassifiers>
    <_>
      <internalNodes>
        0 -1 97233 -6.1163194477558136e-03</internalNodes>
      <leafValues>
        -8.9473682641983032e-01 3.8747099041938782e-01</leafValues></_>
    <_>
      <internalNodes>
        0 -1 143963 8.2829166785813868e-05</internalNodes>
      <leafValues>
        -1.7303226888179779e-01 3.9460945129394531e-01</leafValues></_>
    <_>
      <internalNodes>
        0 -1 113175 -1.5237515617627650e-04</internalNodes>
      <leafValues>
        3.6192792654037476e-01 -2.2151455283164978e-01</leafValues></_>
    <_>
      <internalNodes>
        0 -1 122986 -1.1340288445353508e-02</internalNodes>
      <leafValues>
        -2.5768309831619263e-01 3.0366799235343933e-01</leafValues></_>
    <_>
      <internalNodes>
        0 -1 157552 4.8253377899527550e-03</internalNodes>
      <leafValues>
        -1.3719362020492554e-01 6.3590246438980103e-01</leafValues></_>
    <_>
      <internalNodes>
        0 -1 151075 -1.5049607492983341e-02</internalNodes>
      <leafValues>
        6.0196977853775024e-01 -1.5503908693790436e-01</leafValues></_>
    <_>
      <internalNodes>
        0 -1 129239 -3.8565538823604584e-02</internalNodes>
      <leafValues>
        7.2060412168502808e-01 -1.2017841637134552e-01</leafValues></_>
    <_>
      <internalNodes>
        0 -1 8938 3.2910570502281189e-02</internalNodes>
      <leafValues>
        -1.0939563810825348e-01 6.6924345493316650e-01</leafValues></_>
    <_>
      <internalNodes>
        0 -1 115538 -1.0193972848355770e-03</internalNodes>
      <leafValues>
        -4.2430531978607178e-01 2.2149355709552765e-01</leafValues></_>
    <_>
      <internalNodes>
        0 -1 135430 1.1609800276346505e-04</internalNodes>
      <leafValues>
        2.5289410352706909e-01 -3.7780138850212097e-01</leafValues></_>
    <_>
      <internalNodes>
        0 -1 10788 -6.6868360154330730e-03</internalNodes>
      <leafValues>
        3.5273489356040955e-01 -2.3631832003593445e-01</leafValues></_>
    <_>
      <internalNodes>
        0 -1 130232 -8.5050778579898179e-05</internalNodes>
      <leafValues>
        3.1520149111747742e-01 -2.6282206177711487e-01</leafValues></_>
    <_>
      <internalNodes>
        0 -1 46819 -8.4923341870307922e-02</internalNodes>
      <leafValues>
        -5.2532291412353516e-01 1.7172752320766449e-01</leafValues></_>
    <_>
      <internalNodes>
        0 -1 158804 1.2047954369336367e-03</internalNodes>
      <leafValues>
        -1.8830540776252747e-01 4.9229624867439270e-01</leafValues></_>
    <_>
      <internalNodes>
        0 -1 38808 -7.0033585652709007e-03</internalNodes>
      <leafValues>
        5.0891357660293579e-01 -2.1212744712829590e-01</leafValues></_>
    <_>
      <internalNodes>
        0 -1 16 -6.5457569435238838e-03</internalNodes>
      <leafValues>
        -6.7485767602920532e-01 1.7625433206558228e-01</leafValues></_>
    <_>
      <internalNodes>
        0 -1 37145 -4.4390885159373283e-03</internalNodes>
      <leafValues>
        6.1359924077987671e-01 -1.8628568947315216e-01</leafValues></_>
    <_>
      <internalNodes>
        0 -1 132890 -1.2264577671885490e-02</internalNodes>
      <leafValues>
        4.3684896826744080e-01 -2.1102611720561981e-01</leafValues></_></weakClassifiers></stage24>
</opencv_storage>
