<?xml version="1.0"?>
<opencv_storage>
<stage14>
  <maxWeakCount>15</maxWeakCount>
  <stageThreshold>-6.1845046281814575e-01</stageThreshold>
  <weakClassifiers>
    <_>
      <internalNodes>
        0 -1 121045 -1.2455963296815753e-03</internalNodes>
      <leafValues>
        -7.4193549156188965e-01 4.1288784146308899e-01</leafValues></_>
    <_>
      <internalNodes>
        0 -1 150962 2.2714163060300052e-04</internalNodes>
      <leafValues>
        -2.8344362974166870e-01 3.3423003554344177e-01</leafValues></_>
    <_>
      <internalNodes>
        0 -1 114289 1.8784554675221443e-02</internalNodes>
      <leafValues>
        -1.9617140293121338e-01 5.0774455070495605e-01</leafValues></_>
    <_>
      <internalNodes>
        0 -1 21628 -1.2385426089167595e-02</internalNodes>
      <leafValues>
        7.4851340055465698e-01 -1.2263101339340210e-01</leafValues></_>
    <_>
      <internalNodes>
        0 -1 18183 3.3703044056892395e-02</internalNodes>
      <leafValues>
        -1.5742164850234985e-01 6.9976055622100830e-01</leafValues></_>
    <_>
      <internalNodes>
        0 -1 127297 3.0211275443434715e-03</internalNodes>
      <leafValues>
        1.2865662574768066e-01 -8.6756742000579834e-01</leafValues></_>
    <_>
      <internalNodes>
        0 -1 109634 1.0043999645859003e-03</internalNodes>
      <leafValues>
        7.8160874545574188e-02 -9.1787278652191162e-01</leafValues></_>
    <_>
      <internalNodes>
        0 -1 87389 9.3912438023835421e-04</internalNodes>
      <leafValues>
        -2.6857995986938477e-01 3.0739158391952515e-01</leafValues></_>
    <_>
      <internalNodes>
        0 -1 137370 -2.1885838359594345e-03</internalNodes>
      <leafValues>
        -8.4906512498855591e-01 9.2161528766155243e-02</leafValues></_>
    <_>
      <internalNodes>
        0 -1 159570 1.8729985458776355e-04</internalNodes>
      <leafValues>
        -2.4853865802288055e-01 3.7823167443275452e-01</leafValues></_>
    <_>
      <internalNodes>
        0 -1 151770 -6.4807683229446411e-03</internalNodes>
      <leafValues>
        6.2713211774826050e-01 -1.4764225482940674e-01</leafValues></_>
    <_>
      <internalNodes>
        0 -1 13393 -7.8873697202652693e-04</internalNodes>
      <leafValues>
        -5.7024347782135010e-01 1.8055747449398041e-01</leafValues></_>
    <_>
      <internalNodes>
        0 -1 113081 2.3317846935242414e-03</internalNodes>
      <leafValues>
        9.0017415583133698e-02 -8.8427668809890747e-01</leafValues></_>
    <_>
      <internalNodes>
        0 -1 133611 8.5144792683422565e-04</internalNodes>
      <leafValues>
        -2.4433675408363342e-01 3.7895935773849487e-01</leafValues></_>
    <_>
      <internalNodes>
        0 -1 71384 2.9580155387520790e-03</internalNodes>
      <leafValues>
        -1.6975159943103790e-01 6.1786150932312012e-01</leafValues></_></weakClassifiers></stage14>
</opencv_storage>
