<?xml version="1.0"?>
<opencv_storage>
<stage5>
  <maxWeakCount>10</maxWeakCount>
  <stageThreshold>-3.0505958199501038e-01</stageThreshold>
  <weakClassifiers>
    <_>
      <internalNodes>
        0 -1 153074 1.9744018092751503e-02</internalNodes>
      <leafValues>
        4.7970481216907501e-02 7.6536315679550171e-01</leafValues></_>
    <_>
      <internalNodes>
        0 -1 14417 -1.2779007665812969e-03</internalNodes>
      <leafValues>
        -7.2844749689102173e-01 2.2610139846801758e-01</leafValues></_>
    <_>
      <internalNodes>
        0 -1 49580 5.5943336337804794e-03</internalNodes>
      <leafValues>
        -2.1392507851123810e-01 6.0913717746734619e-01</leafValues></_>
    <_>
      <internalNodes>
        0 -1 154728 -2.7566865086555481e-02</internalNodes>
      <leafValues>
        7.6737946271896362e-01 -1.9036747515201569e-01</leafValues></_>
    <_>
      <internalNodes>
        0 -1 145898 -6.8587646819651127e-04</internalNodes>
      <leafValues>
        -7.7173036336898804e-01 1.9403843581676483e-01</leafValues></_>
    <_>
      <internalNodes>
        0 -1 139131 2.0006101578474045e-02</internalNodes>
      <leafValues>
        -2.0658613741397858e-01 7.0715266466140747e-01</leafValues></_>
    <_>
      <internalNodes>
        0 -1 70690 -1.8260080367326736e-02</internalNodes>
      <leafValues>
        5.8943581581115723e-01 -1.9653826951980591e-01</leafValues></_>
    <_>
      <internalNodes>
        0 -1 154725 -1.7922386527061462e-02</internalNodes>
      <leafValues>
        7.4246162176132202e-01 -1.5993753075599670e-01</leafValues></_>
    <_>
      <internalNodes>
        0 -1 23740 -3.2702695578336716e-02</internalNodes>
      <leafValues>
        8.7425863742828369e-01 -1.2845644354820251e-01</leafValues></_>
    <_>
      <internalNodes>
        0 -1 61041 -7.5392248108983040e-03</internalNodes>
      <leafValues>
        4.1247820854187012e-01 -3.3138197660446167e-01</leafValues></_></weakClassifiers></stage5>
</opencv_storage>
