<?xml version="1.0"?>
<opencv_storage>
<stage8>
  <maxWeakCount>32</maxWeakCount>
  <stageThreshold>-6.1987102031707764e-01</stageThreshold>
  <weakClassifiers>
    <_>
      <internalNodes>
        0 -1 9640 -1.9974663853645325e-02</internalNodes>
      <leafValues>
        5.6164383888244629e-01 7.0301294326782227e-02</leafValues></_>
    <_>
      <internalNodes>
        0 -1 135326 9.1570854187011719e-02</internalNodes>
      <leafValues>
        -8.2310453057289124e-02 6.0752797126770020e-01</leafValues></_>
    <_>
      <internalNodes>
        0 -1 122794 1.2433100491762161e-01</internalNodes>
      <leafValues>
        -1.2874476611614227e-01 4.4744440913200378e-01</leafValues></_>
    <_>
      <internalNodes>
        0 -1 108307 4.7307722270488739e-03</internalNodes>
      <leafValues>
        -2.2591891884803772e-01 2.4893650412559509e-01</leafValues></_>
    <_>
      <internalNodes>
        0 -1 160825 -1.0587351396679878e-02</internalNodes>
      <leafValues>
        -3.7259182333946228e-01 1.1602468043565750e-01</leafValues></_>
    <_>
      <internalNodes>
        0 -1 79052 -1.3202834874391556e-02</internalNodes>
      <leafValues>
        4.3018105626106262e-01 -9.8289765417575836e-02</leafValues></_>
    <_>
      <internalNodes>
        0 -1 9624 3.1867437064647675e-02</internalNodes>
      <leafValues>
        -9.1186664998531342e-02 5.3370022773742676e-01</leafValues></_>
    <_>
      <internalNodes>
        0 -1 104746 -1.4328544493764639e-03</internalNodes>
      <leafValues>
        -6.4691084623336792e-01 8.1687428057193756e-02</leafValues></_>
    <_>
      <internalNodes>
        0 -1 114333 -1.7186375334858894e-03</internalNodes>
      <leafValues>
        3.4284123778343201e-01 -1.3552442193031311e-01</leafValues></_>
    <_>
      <internalNodes>
        0 -1 127518 1.0534850880503654e-02</internalNodes>
      <leafValues>
        -1.0120968520641327e-01 4.4697135686874390e-01</leafValues></_>
    <_>
      <internalNodes>
        0 -1 127648 -5.4616213310509920e-04</internalNodes>
      <leafValues>
        2.6851272583007813e-01 -1.8469810485839844e-01</leafValues></_>
    <_>
      <internalNodes>
        0 -1 161178 -1.4290941180661321e-03</internalNodes>
      <leafValues>
        -6.8845528364181519e-01 7.2956673800945282e-02</leafValues></_>
    <_>
      <internalNodes>
        0 -1 103931 -3.4221019595861435e-02</internalNodes>
      <leafValues>
        -1.1945629864931107e-01 3.9305114746093750e-01</leafValues></_>
    <_>
      <internalNodes>
        0 -1 94627 -1.1834973096847534e-01</internalNodes>
      <leafValues>
        4.7783347964286804e-01 -1.0401711612939835e-01</leafValues></_>
    <_>
      <internalNodes>
        0 -1 95636 1.2549653183668852e-03</internalNodes>
      <leafValues>
        9.0993352234363556e-02 -4.6620893478393555e-01</leafValues></_>
    <_>
      <internalNodes>
        0 -1 105717 -1.4009116217494011e-02</internalNodes>
      <leafValues>
        4.4862824678421021e-01 -9.0412996709346771e-02</leafValues></_>
    <_>
      <internalNodes>
        0 -1 157589 -2.1139348391443491e-03</internalNodes>
      <leafValues>
        5.1177222281694412e-02 -8.7512034177780151e-01</leafValues></_>
    <_>
      <internalNodes>
        0 -1 122125 -4.6179173514246941e-03</internalNodes>
      <leafValues>
        3.9618045091629028e-01 -1.2104689329862595e-01</leafValues></_>
    <_>
      <internalNodes>
        0 -1 94712 -2.1422812715172768e-03</internalNodes>
      <leafValues>
        -8.4741258621215820e-01 5.5858533829450607e-02</leafValues></_>
    <_>
      <internalNodes>
        0 -1 111430 -2.8370814397931099e-03</internalNodes>
      <leafValues>
        -9.4650965929031372e-01 2.7481202036142349e-02</leafValues></_>
    <_>
      <internalNodes>
        0 -1 6834 -7.7153323218226433e-03</internalNodes>
      <leafValues>
        3.4692439436912537e-01 -1.1831492185592651e-01</leafValues></_>
    <_>
      <internalNodes>
        0 -1 119940 1.1641450226306915e-02</internalNodes>
      <leafValues>
        -7.6416231691837311e-02 5.2633750438690186e-01</leafValues></_>
    <_>
      <internalNodes>
        0 -1 138524 6.8466626107692719e-03</internalNodes>
      <leafValues>
        -1.3528668880462646e-01 3.0210977792739868e-01</leafValues></_>
    <_>
      <internalNodes>
        0 -1 108996 -1.2628805637359619e-01</internalNodes>
      <leafValues>
        6.6110205650329590e-01 -7.0093229413032532e-02</leafValues></_>
    <_>
      <internalNodes>
        0 -1 114414 -5.5929075460880995e-04</internalNodes>
      <leafValues>
        6.4059816300868988e-02 -8.6622887849807739e-01</leafValues></_>
    <_>
      <internalNodes>
        0 -1 158592 5.4796517360955477e-04</internalNodes>
      <leafValues>
        -1.6844016313552856e-01 2.7067446708679199e-01</leafValues></_>
    <_>
      <internalNodes>
        0 -1 58510 -1.7963979626074433e-03</internalNodes>
      <leafValues>
        -6.6052514314651489e-01 7.1228623390197754e-02</leafValues></_>
    <_>
      <internalNodes>
        0 -1 12536 -1.3385114260017872e-02</internalNodes>
      <leafValues>
        -4.8439332842826843e-01 7.0815093815326691e-02</leafValues></_>
    <_>
      <internalNodes>
        0 -1 13190 4.6388237387873232e-04</internalNodes>
      <leafValues>
        1.3238698244094849e-01 -2.8949195146560669e-01</leafValues></_>
    <_>
      <internalNodes>
        0 -1 140428 7.7377835987135768e-04</internalNodes>
      <leafValues>
        -1.4330603182315826e-01 2.9238206148147583e-01</leafValues></_>
    <_>
      <internalNodes>
        0 -1 145110 -4.2194384150207043e-03</internalNodes>
      <leafValues>
        6.9442771375179291e-02 -6.6964966058731079e-01</leafValues></_>
    <_>
      <internalNodes>
        0 -1 149624 -6.4332157373428345e-02</internalNodes>
      <leafValues>
        -1.6547521948814392e-01 2.8054097294807434e-01</leafValues></_></weakClassifiers></stage8>
</opencv_storage>
