<?xml version="1.0"?>
<opencv_storage>
<stage5>
  <maxWeakCount>29</maxWeakCount>
  <stageThreshold>-7.0934408903121948e-01</stageThreshold>
  <weakClassifiers>
    <_>
      <internalNodes>
        0 -1 87074 -1.2338549131527543e-03</internalNodes>
      <leafValues>
        5.4273027181625366e-01 1.8363939598202705e-02</leafValues></_>
    <_>
      <internalNodes>
        0 -1 128041 -5.2640237845480442e-04</internalNodes>
      <leafValues>
        3.7243595719337463e-01 -1.9146457314491272e-01</leafValues></_>
    <_>
      <internalNodes>
        0 -1 42482 -5.0191491842269897e-02</internalNodes>
      <leafValues>
        5.3180509805679321e-01 -1.2484157830476761e-01</leafValues></_>
    <_>
      <internalNodes>
        0 -1 114904 9.0083209797739983e-03</internalNodes>
      <leafValues>
        -1.2021625041961670e-01 6.4433991909027100e-01</leafValues></_>
    <_>
      <internalNodes>
        0 -1 3063 -1.7511177062988281e-01</internalNodes>
      <leafValues>
        -3.3062624931335449e-01 1.9693979620933533e-01</leafValues></_>
    <_>
      <internalNodes>
        0 -1 88847 1.0900452733039856e-02</internalNodes>
      <leafValues>
        -7.4788898229598999e-02 7.2702914476394653e-01</leafValues></_>
    <_>
      <internalNodes>
        0 -1 137762 1.2253956869244576e-02</internalNodes>
      <leafValues>
        -1.4785830676555634e-01 3.4630349278450012e-01</leafValues></_>
    <_>
      <internalNodes>
        0 -1 51484 -1.4819924719631672e-02</internalNodes>
      <leafValues>
        2.8181219100952148e-01 -1.8895667791366577e-01</leafValues></_>
    <_>
      <internalNodes>
        0 -1 51186 6.2724880874156952e-02</internalNodes>
      <leafValues>
        -1.5374320745468140e-01 4.0439742803573608e-01</leafValues></_>
    <_>
      <internalNodes>
        0 -1 130028 -1.9226408330723643e-03</internalNodes>
      <leafValues>
        3.7438616156578064e-01 -1.4611886441707611e-01</leafValues></_>
    <_>
      <internalNodes>
        0 -1 119502 1.5364678576588631e-02</internalNodes>
      <leafValues>
        -1.0046583414077759e-01 4.5176059007644653e-01</leafValues></_>
    <_>
      <internalNodes>
        0 -1 70104 -9.4593660905957222e-03</internalNodes>
      <leafValues>
        4.0741083025932312e-01 -1.2217164784669876e-01</leafValues></_>
    <_>
      <internalNodes>
        0 -1 146701 -1.2971330434083939e-02</internalNodes>
      <leafValues>
        6.1762130260467529e-01 -7.1170493960380554e-02</leafValues></_>
    <_>
      <internalNodes>
        0 -1 135780 5.4716407321393490e-03</internalNodes>
      <leafValues>
        -1.1710365861654282e-01 3.7175139784812927e-01</leafValues></_>
    <_>
      <internalNodes>
        0 -1 160285 -1.8791722133755684e-02</internalNodes>
      <leafValues>
        -5.1646149158477783e-01 9.6998140215873718e-02</leafValues></_>
    <_>
      <internalNodes>
        0 -1 144922 2.0799284800887108e-02</internalNodes>
      <leafValues>
        -8.3167314529418945e-02 5.7989847660064697e-01</leafValues></_>
    <_>
      <internalNodes>
        0 -1 101160 -4.3016942217946053e-03</internalNodes>
      <leafValues>
        -5.8779937028884888e-01 8.7352804839611053e-02</leafValues></_>
    <_>
      <internalNodes>
        0 -1 154002 1.0587241500616074e-02</internalNodes>
      <leafValues>
        -1.3336944580078125e-01 3.5626333951950073e-01</leafValues></_>
    <_>
      <internalNodes>
        0 -1 30987 1.7986766993999481e-02</internalNodes>
      <leafValues>
        -7.8023396432399750e-02 7.0304316282272339e-01</leafValues></_>
    <_>
      <internalNodes>
        0 -1 159927 1.3491541612893343e-03</internalNodes>
      <leafValues>
        -1.0181513428688049e-01 4.5011126995086670e-01</leafValues></_>
    <_>
      <internalNodes>
        0 -1 58617 -2.2091284394264221e-02</internalNodes>
      <leafValues>
        -1.0074391961097717e-01 4.3378299474716187e-01</leafValues></_>
    <_>
      <internalNodes>
        0 -1 25787 -2.1770636085420847e-03</internalNodes>
      <leafValues>
        1.2830275297164917e-01 -4.8996624350547791e-01</leafValues></_>
    <_>
      <internalNodes>
        0 -1 57201 -2.6635808171704412e-04</internalNodes>
      <leafValues>
        2.8944462537765503e-01 -1.7011967301368713e-01</leafValues></_>
    <_>
      <internalNodes>
        0 -1 16690 7.8666627407073975e-02</internalNodes>
      <leafValues>
        -7.0324547588825226e-02 5.8376950025558472e-01</leafValues></_>
    <_>
      <internalNodes>
        0 -1 1457 -5.2207179367542267e-02</internalNodes>
      <leafValues>
        3.5911327600479126e-01 -1.2956708669662476e-01</leafValues></_>
    <_>
      <internalNodes>
        0 -1 139312 -1.4139192178845406e-02</internalNodes>
      <leafValues>
        -7.8448528051376343e-01 6.7905411124229431e-02</leafValues></_>
    <_>
      <internalNodes>
        0 -1 129171 -4.8686526715755463e-03</internalNodes>
      <leafValues>
        4.4243854284286499e-01 -1.1748041957616806e-01</leafValues></_>
    <_>
      <internalNodes>
        0 -1 98733 1.6781521262601018e-03</internalNodes>
      <leafValues>
        -7.8996822237968445e-02 5.5316495895385742e-01</leafValues></_>
    <_>
      <internalNodes>
        0 -1 106881 -9.5136009622365236e-04</internalNodes>
      <leafValues>
        2.9174825549125671e-01 -1.7373318970203400e-01</leafValues></_></weakClassifiers></stage5>
</opencv_storage>
