<?xml version="1.0"?>
<opencv_storage>
<stage9>
  <maxWeakCount>34</maxWeakCount>
  <stageThreshold>-6.2229233980178833e-01</stageThreshold>
  <weakClassifiers>
    <_>
      <internalNodes>
        0 -1 13300 -1.7528259195387363e-03</internalNodes>
      <leafValues>
        -4.6428570151329041e-01 3.9769452810287476e-01</leafValues></_>
    <_>
      <internalNodes>
        0 -1 86476 -3.2183408737182617e-02</internalNodes>
      <leafValues>
        6.0488277673721313e-01 -5.4239682853221893e-02</leafValues></_>
    <_>
      <internalNodes>
        0 -1 98813 -2.8606781270354986e-03</internalNodes>
      <leafValues>
        3.4942263364791870e-01 -1.8946897983551025e-01</leafValues></_>
    <_>
      <internalNodes>
        0 -1 13304 -4.0250886231660843e-03</internalNodes>
      <leafValues>
        8.8693350553512573e-02 -4.7883063554763794e-01</leafValues></_>
    <_>
      <internalNodes>
        0 -1 138711 1.9046720117330551e-02</internalNodes>
      <leafValues>
        -1.7617224156856537e-01 2.8855925798416138e-01</leafValues></_>
    <_>
      <internalNodes>
        0 -1 135341 6.5561467781662941e-03</internalNodes>
      <leafValues>
        -1.2972287833690643e-01 3.8359266519546509e-01</leafValues></_>
    <_>
      <internalNodes>
        0 -1 157597 3.9386597927659750e-04</internalNodes>
      <leafValues>
        8.5065901279449463e-02 -4.4094502925872803e-01</leafValues></_>
    <_>
      <internalNodes>
        0 -1 113360 -1.3414681889116764e-03</internalNodes>
      <leafValues>
        -8.1390976905822754e-02 5.1342833042144775e-01</leafValues></_>
    <_>
      <internalNodes>
        0 -1 137623 -1.6646466683596373e-03</internalNodes>
      <leafValues>
        -5.7668888568878174e-01 7.9384148120880127e-02</leafValues></_>
    <_>
      <internalNodes>
        0 -1 80703 -2.2227156441658735e-03</internalNodes>
      <leafValues>
        4.6807938814163208e-01 -9.7802184522151947e-02</leafValues></_>
    <_>
      <internalNodes>
        0 -1 151879 1.5087549109011889e-03</internalNodes>
      <leafValues>
        6.4452014863491058e-02 -8.0157417058944702e-01</leafValues></_>
    <_>
      <internalNodes>
        0 -1 106320 5.1070451736450195e-03</internalNodes>
      <leafValues>
        -1.1206182092428207e-01 3.9999878406524658e-01</leafValues></_>
    <_>
      <internalNodes>
        0 -1 58628 1.9351419061422348e-02</internalNodes>
      <leafValues>
        -8.4708541631698608e-02 5.1530402898788452e-01</leafValues></_>
    <_>
      <internalNodes>
        0 -1 53259 8.9492108672857285e-03</internalNodes>
      <leafValues>
        -9.1459468007087708e-02 4.4441491365432739e-01</leafValues></_>
    <_>
      <internalNodes>
        0 -1 17092 -2.4626016616821289e-02</internalNodes>
      <leafValues>
        4.2092844843864441e-01 -1.0280834883451462e-01</leafValues></_>
    <_>
      <internalNodes>
        0 -1 156172 -3.7452783435583115e-02</internalNodes>
      <leafValues>
        9.2885978519916534e-02 -5.4852843284606934e-01</leafValues></_>
    <_>
      <internalNodes>
        0 -1 128062 -2.2704232484102249e-02</internalNodes>
      <leafValues>
        -3.5983172059059143e-01 1.2700077891349792e-01</leafValues></_>
    <_>
      <internalNodes>
        0 -1 121598 -8.2662785425782204e-03</internalNodes>
      <leafValues>
        2.6355800032615662e-01 -1.6522023081779480e-01</leafValues></_>
    <_>
      <internalNodes>
        0 -1 107783 5.2999136969447136e-03</internalNodes>
      <leafValues>
        -1.1722355335950851e-01 4.3960914015769958e-01</leafValues></_>
    <_>
      <internalNodes>
        0 -1 122047 1.8691871082410216e-03</internalNodes>
      <leafValues>
        -1.1282646656036377e-01 3.4736272692680359e-01</leafValues></_>
    <_>
      <internalNodes>
        0 -1 94717 -2.0522654522210360e-03</internalNodes>
      <leafValues>
        -4.9066337943077087e-01 9.9284492433071136e-02</leafValues></_>
    <_>
      <internalNodes>
        0 -1 131325 -1.8104838673025370e-03</internalNodes>
      <leafValues>
        2.4720893800258636e-01 -1.7077930271625519e-01</leafValues></_>
    <_>
      <internalNodes>
        0 -1 24415 6.0847727581858635e-04</internalNodes>
      <leafValues>
        1.3171854615211487e-01 -3.2517114281654358e-01</leafValues></_>
    <_>
      <internalNodes>
        0 -1 57211 3.1522456556558609e-03</internalNodes>
      <leafValues>
        -1.4226134121417999e-01 3.5784134268760681e-01</leafValues></_>
    <_>
      <internalNodes>
        0 -1 60420 1.6952745500020683e-04</internalNodes>
      <leafValues>
        1.3718967139720917e-01 -3.5239183902740479e-01</leafValues></_>
    <_>
      <internalNodes>
        0 -1 30469 -9.6724890172481537e-03</internalNodes>
      <leafValues>
        5.0289106369018555e-01 -9.2539533972740173e-02</leafValues></_>
    <_>
      <internalNodes>
        0 -1 143991 1.2643858790397644e-03</internalNodes>
      <leafValues>
        -2.1005758643150330e-01 2.0161591470241547e-01</leafValues></_>
    <_>
      <internalNodes>
        0 -1 149526 -3.7091718986630440e-03</internalNodes>
      <leafValues>
        5.1456934213638306e-01 -7.9823121428489685e-02</leafValues></_>
    <_>
      <internalNodes>
        0 -1 153274 -2.9803007841110229e-02</internalNodes>
      <leafValues>
        6.3316822052001953e-01 -5.8960903435945511e-02</leafValues></_>
    <_>
      <internalNodes>
        0 -1 124264 -1.7192120430991054e-03</internalNodes>
      <leafValues>
        -6.8136900663375854e-01 7.3128521442413330e-02</leafValues></_>
    <_>
      <internalNodes>
        0 -1 43704 9.8703138064593077e-04</internalNodes>
      <leafValues>
        -1.3810397684574127e-01 3.1137847900390625e-01</leafValues></_>
    <_>
      <internalNodes>
        0 -1 144006 2.3104040883481503e-03</internalNodes>
      <leafValues>
        6.2826104462146759e-02 -6.9006091356277466e-01</leafValues></_>
    <_>
      <internalNodes>
        0 -1 10009 -5.7339016348123550e-04</internalNodes>
      <leafValues>
        3.6669638752937317e-01 -1.2466510385274887e-01</leafValues></_>
    <_>
      <internalNodes>
        0 -1 128609 -4.8604488372802734e-02</internalNodes>
      <leafValues>
        -3.5919305682182312e-01 1.1603063344955444e-01</leafValues></_></weakClassifiers></stage9>
</opencv_storage>
