<?xml version="1.0"?>
<opencv_storage>
<stage7>
  <maxWeakCount>30</maxWeakCount>
  <stageThreshold>-7.1305662393569946e-01</stageThreshold>
  <weakClassifiers>
    <_>
      <internalNodes>
        0 -1 97301 7.9286620020866394e-03</internalNodes>
      <leafValues>
        -3.6231884732842445e-03 5.2953588962554932e-01</leafValues></_>
    <_>
      <internalNodes>
        0 -1 61968 7.3948256671428680e-02</internalNodes>
      <leafValues>
        -1.1635932326316833e-01 4.3263968825340271e-01</leafValues></_>
    <_>
      <internalNodes>
        0 -1 23573 1.4221843332052231e-02</internalNodes>
      <leafValues>
        -1.7265976965427399e-01 4.0322107076644897e-01</leafValues></_>
    <_>
      <internalNodes>
        0 -1 121425 -1.8367429729551077e-03</internalNodes>
      <leafValues>
        3.2334336638450623e-01 -2.0123131573200226e-01</leafValues></_>
    <_>
      <internalNodes>
        0 -1 70691 9.1922916471958160e-03</internalNodes>
      <leafValues>
        -9.3875281512737274e-02 5.4868704080581665e-01</leafValues></_>
    <_>
      <internalNodes>
        0 -1 98640 -6.6211009398102760e-03</internalNodes>
      <leafValues>
        -7.0273560285568237e-01 6.8005003035068512e-02</leafValues></_>
    <_>
      <internalNodes>
        0 -1 60420 -3.3658131724223495e-04</internalNodes>
      <leafValues>
        -4.2172005772590637e-01 1.3226385414600372e-01</leafValues></_>
    <_>
      <internalNodes>
        0 -1 147166 1.1615261435508728e-02</internalNodes>
      <leafValues>
        -1.2928631901741028e-01 3.5770216584205627e-01</leafValues></_>
    <_>
      <internalNodes>
        0 -1 137086 1.0081288637593389e-03</internalNodes>
      <leafValues>
        7.9692490398883820e-02 -5.7885688543319702e-01</leafValues></_>
    <_>
      <internalNodes>
        0 -1 23172 7.9995281994342804e-03</internalNodes>
      <leafValues>
        -1.1446177959442139e-01 4.3069908022880554e-01</leafValues></_>
    <_>
      <internalNodes>
        0 -1 40686 -5.2061909809708595e-03</internalNodes>
      <leafValues>
        7.9489685595035553e-02 -7.0190501213073730e-01</leafValues></_>
    <_>
      <internalNodes>
        0 -1 37006 -4.7130854800343513e-03</internalNodes>
      <leafValues>
        2.2361230850219727e-01 -2.0157711207866669e-01</leafValues></_>
    <_>
      <internalNodes>
        0 -1 106788 -7.9522037412971258e-04</internalNodes>
      <leafValues>
        -5.9271311759948730e-01 7.6170019805431366e-02</leafValues></_>
    <_>
      <internalNodes>
        0 -1 68052 -2.7840504422783852e-02</internalNodes>
      <leafValues>
        4.1912952065467834e-01 -1.0846982151269913e-01</leafValues></_>
    <_>
      <internalNodes>
        0 -1 37624 -1.8186814850196242e-04</internalNodes>
      <leafValues>
        -2.8394827246665955e-01 1.5419586002826691e-01</leafValues></_>
    <_>
      <internalNodes>
        0 -1 62952 2.2088929545134306e-03</internalNodes>
      <leafValues>
        -1.7969788610935211e-01 2.4972285330295563e-01</leafValues></_>
    <_>
      <internalNodes>
        0 -1 6428 1.9305974245071411e-01</internalNodes>
      <leafValues>
        8.5574664175510406e-02 -6.5144079923629761e-01</leafValues></_>
    <_>
      <internalNodes>
        0 -1 127791 5.0526289269328117e-03</internalNodes>
      <leafValues>
        -1.3965864479541779e-01 3.7579956650733948e-01</leafValues></_>
    <_>
      <internalNodes>
        0 -1 133427 -3.6504911258816719e-03</internalNodes>
      <leafValues>
        3.4987002611160278e-01 -1.4776055514812469e-01</leafValues></_>
    <_>
      <internalNodes>
        0 -1 161180 7.9431914491578937e-04</internalNodes>
      <leafValues>
        -1.1993440240621567e-01 3.7876343727111816e-01</leafValues></_>
    <_>
      <internalNodes>
        0 -1 139963 -3.6789854057133198e-03</internalNodes>
      <leafValues>
        3.4020251035690308e-01 -1.2911346554756165e-01</leafValues></_>
    <_>
      <internalNodes>
        0 -1 114412 -1.4293121639639139e-03</internalNodes>
      <leafValues>
        -7.1548426151275635e-01 6.9038189947605133e-02</leafValues></_>
    <_>
      <internalNodes>
        0 -1 13537 -1.8918700516223907e-01</internalNodes>
      <leafValues>
        -6.5946316719055176e-01 6.3870407640933990e-02</leafValues></_>
    <_>
      <internalNodes>
        0 -1 155186 -5.5746510624885559e-03</internalNodes>
      <leafValues>
        9.5899768173694611e-02 -4.7299095988273621e-01</leafValues></_>
    <_>
      <internalNodes>
        0 -1 116545 5.3669982589781284e-03</internalNodes>
      <leafValues>
        5.4818097501993179e-02 -7.2874587774276733e-01</leafValues></_>
    <_>
      <internalNodes>
        0 -1 159552 -1.3763145543634892e-03</internalNodes>
      <leafValues>
        -6.1954879760742188e-01 5.9578649699687958e-02</leafValues></_>
    <_>
      <internalNodes>
        0 -1 16134 5.0168456509709358e-03</internalNodes>
      <leafValues>
        -1.6117364168167114e-01 2.6446712017059326e-01</leafValues></_>
    <_>
      <internalNodes>
        0 -1 90412 1.1942656710743904e-02</internalNodes>
      <leafValues>
        -6.7112736403942108e-02 6.8997395038604736e-01</leafValues></_>
    <_>
      <internalNodes>
        0 -1 21076 -2.3683305829763412e-02</internalNodes>
      <leafValues>
        3.3317035436630249e-01 -1.2122061848640442e-01</leafValues></_>
    <_>
      <internalNodes>
        0 -1 98639 -1.3681906275451183e-03</internalNodes>
      <leafValues>
        -7.0137101411819458e-01 6.2360849231481552e-02</leafValues></_></weakClassifiers></stage7>
</opencv_storage>
