<?xml version="1.0"?>
<opencv_storage>
<cascade>
  <stageType>BOOST</stageType>
  <featureType>HAAR</featureType>
  <height>24</height>
  <width>24</width>
  <stageParams>
    <boostType>GAB</boostType>
    <minHitRate>9.9500000476837158e-01</minHitRate>
    <maxFalseAlarm>5.0000000000000000e-01</maxFalseAlarm>
    <weightTrimRate>9.4999999999999996e-01</weightTrimRate>
    <maxDepth>1</maxDepth>
    <maxWeakCount>100</maxWeakCount></stageParams>
  <featureParams>
    <maxCatCount>0</maxCatCount>
    <featSize>1</featSize>
    <mode>BASIC</mode></featureParams>
  <stageNum>10</stageNum>
  <stages>
    <!-- stage 0 -->
    <_>
      <maxWeakCount>5</maxWeakCount>
      <stageThreshold>-4.6459481120109558e-01</stageThreshold>
      <weakClassifiers>
        <_>
          <internalNodes>
            0 -1 3 2.3464018478989601e-02</internalNodes>
          <leafValues>
            -2.6315790414810181e-01 8.0838322639465332e-01</leafValues></_>
        <_>
          <internalNodes>
            0 -1 52 1.2654675170779228e-02</internalNodes>
          <leafValues>
            -4.7446468472480774e-01 6.2708342075347900e-01</leafValues></_>
        <_>
          <internalNodes>
            0 -1 10 -2.4570899084210396e-02</internalNodes>
          <leafValues>
            7.7601617574691772e-01 -2.9570001363754272e-01</leafValues></_>
        <_>
          <internalNodes>
            0 -1 76 -7.9248249530792236e-03</internalNodes>
          <leafValues>
            2.8228554129600525e-01 -8.3406144380569458e-01</leafValues></_>
        <_>
          <internalNodes>
            0 -1 43 -5.7719526812434196e-03</internalNodes>
          <leafValues>
            -8.1510585546493530e-01 3.1263422966003418e-01</leafValues></_></weakClassifiers></_>
    <!-- stage 1 -->
    <_>
      <maxWeakCount>6</maxWeakCount>
      <stageThreshold>-3.7084597349166870e-01</stageThreshold>
      <weakClassifiers>
        <_>
          <internalNodes>
            0 -1 20 3.5606853663921356e-02</internalNodes>
          <leafValues>
            -1.3609467446804047e-01 9.3893128633499146e-01</leafValues></_>
        <_>
          <internalNodes>
            0 -1 55 -7.1841189637780190e-03</internalNodes>
          <leafValues>
            -9.0462434291839600e-01 3.5453408956527710e-01</leafValues></_>
        <_>
          <internalNodes>
            0 -1 50 -5.9076361358165741e-02</internalNodes>
          <leafValues>
            9.3727076053619385e-01 -2.7105227112770081e-01</leafValues></_>
        <_>
          <internalNodes>
            0 -1 15 -4.0128178894519806e-02</internalNodes>
          <leafValues>
            3.9685907959938049e-01 -5.7707357406616211e-01</leafValues></_>
        <_>
          <internalNodes>
            0 -1 23 -1.5166181139647961e-02</internalNodes>
          <leafValues>
            7.9451370239257813e-01 -3.0787777900695801e-01</leafValues></_>
        <_>
          <internalNodes>
            0 -1 69 2.3515180218964815e-03</internalNodes>
          <leafValues>
            -3.5497897863388062e-01 5.6671828031539917e-01</leafValues></_></weakClassifiers></_>
    <!-- stage 2 -->
    <_>
      <maxWeakCount>6</maxWeakCount>
      <stageThreshold>-1.0432507991790771e+00</stageThreshold>
      <weakClassifiers>
        <_>
          <internalNodes>
            0 -1 48 -1.6144787892699242e-02</internalNodes>
          <leafValues>
            -7.7464789152145386e-01 6.7685592174530029e-01</leafValues></_>
        <_>
          <internalNodes>
            0 -1 1 5.1152620464563370e-02</internalNodes>
          <leafValues>
            -4.0867832303047180e-01 7.2238522768020630e-01</leafValues></_>
        <_>
          <internalNodes>
            0 -1 59 -6.5348409116268158e-03</internalNodes>
          <leafValues>
            -7.8804290294647217e-01 3.5043296217918396e-01</leafValues></_>
        <_>
          <internalNodes>
            0 -1 11 -6.9494699127972126e-03</internalNodes>
          <leafValues>
            8.2380533218383789e-01 -2.8898069262504578e-01</leafValues></_>
        <_>
          <internalNodes>
            0 -1 28 -6.4345761202275753e-03</internalNodes>
          <leafValues>
            6.1482799053192139e-01 -3.7701955437660217e-01</leafValues></_>
        <_>
          <internalNodes>
            0 -1 71 -1.1305792629718781e-01</internalNodes>
          <leafValues>
            -5.7850396633148193e-01 4.5564270019531250e-01</leafValues></_></weakClassifiers></_>
    <!-- stage 3 -->
    <_>
      <maxWeakCount>9</maxWeakCount>
      <stageThreshold>-1.0292840003967285e+00</stageThreshold>
      <weakClassifiers>
        <_>
          <internalNodes>
            0 -1 38 3.0790450051426888e-02</internalNodes>
          <leafValues>
            -2.0000000298023224e-01 7.6969695091247559e-01</leafValues></_>
        <_>
          <internalNodes>
            0 -1 54 3.5484433174133301e-02</internalNodes>
          <leafValues>
            -2.3321434855461121e-01 6.7152786254882813e-01</leafValues></_>
        <_>
          <internalNodes>
            0 -1 37 -4.1593839414417744e-03</internalNodes>
          <leafValues>
            6.4237272739410400e-01 -2.7978235483169556e-01</leafValues></_>
        <_>
          <internalNodes>
            0 -1 70 2.8323235455900431e-03</internalNodes>
          <leafValues>
            -2.6432272791862488e-01 7.6335376501083374e-01</leafValues></_>
        <_>
          <internalNodes>
            0 -1 40 -8.5781574249267578e-02</internalNodes>
          <leafValues>
            6.7610424757003784e-01 -2.8011009097099304e-01</leafValues></_>
        <_>
          <internalNodes>
            0 -1 47 -2.3816283792257309e-02</internalNodes>
          <leafValues>
            7.4954098463058472e-01 -2.0363119244575500e-01</leafValues></_>
        <_>
          <internalNodes>
            0 -1 72 -4.1849889385048300e-05</internalNodes>
          <leafValues>
            -4.1924360394477844e-01 3.7594133615493774e-01</leafValues></_>
        <_>
          <internalNodes>
            0 -1 24 4.0160951903089881e-04</internalNodes>
          <leafValues>
            2.4769677221775055e-01 -6.9392269849777222e-01</leafValues></_>
        <_>
          <internalNodes>
            0 -1 7 -6.2938138842582703e-02</internalNodes>
          <leafValues>
            6.0073471069335938e-01 -3.1883153319358826e-01</leafValues></_></weakClassifiers></_>
    <!-- stage 4 -->
    <_>
      <maxWeakCount>7</maxWeakCount>
      <stageThreshold>-3.0527898669242859e-01</stageThreshold>
      <weakClassifiers>
        <_>
          <internalNodes>
            0 -1 31 5.1413364708423615e-02</internalNodes>
          <leafValues>
            -1.1249999701976776e-01 8.4285712242126465e-01</leafValues></_>
        <_>
          <internalNodes>
            0 -1 53 1.8292989581823349e-02</internalNodes>
          <leafValues>
            -2.1523687243461609e-01 6.8457871675491333e-01</leafValues></_>
        <_>
          <internalNodes>
            0 -1 29 5.6865505874156952e-02</internalNodes>
          <leafValues>
            -2.0524756610393524e-01 7.2773927450180054e-01</leafValues></_>
        <_>
          <internalNodes>
            0 -1 9 -4.2562425136566162e-02</internalNodes>
          <leafValues>
            5.4581147432327271e-01 -3.1311097741127014e-01</leafValues></_>
        <_>
          <internalNodes>
            0 -1 35 1.0777519783005118e-03</internalNodes>
          <leafValues>
            -3.0498394370079041e-01 5.5059611797332764e-01</leafValues></_>
        <_>
          <internalNodes>
            0 -1 77 1.2702611275017262e-03</internalNodes>
          <leafValues>
            -3.2509660720825195e-01 5.1475024223327637e-01</leafValues></_>
        <_>
          <internalNodes>
            0 -1 62 -6.1138154705986381e-05</internalNodes>
          <leafValues>
            -4.9135205149650574e-01 3.3105009794235229e-01</leafValues></_></weakClassifiers></_>
    <!-- stage 5 -->
    <_>
      <maxWeakCount>9</maxWeakCount>
      <stageThreshold>-3.9038324356079102e-01</stageThreshold>
      <weakClassifiers>
        <_>
          <internalNodes>
            0 -1 34 3.0772367492318153e-02</internalNodes>
          <leafValues>
            -1.3043478131294250e-01 7.2839504480361938e-01</leafValues></_>
        <_>
          <internalNodes>
            0 -1 25 -1.3104595709592104e-03</internalNodes>
          <leafValues>
            5.7813775539398193e-01 -2.8879207372665405e-01</leafValues></_>
        <_>
          <internalNodes>
            0 -1 2 -1.2599200010299683e-01</internalNodes>
          <leafValues>
            8.1106585264205933e-01 -1.8100050091743469e-01</leafValues></_>
        <_>
          <internalNodes>
            0 -1 6 -6.7880526185035706e-02</internalNodes>
          <leafValues>
            6.8835687637329102e-01 -2.5086838006973267e-01</leafValues></_>
        <_>
          <internalNodes>
            0 -1 42 5.3930021822452545e-02</internalNodes>
          <leafValues>
            -2.3156814277172089e-01 7.6686555147171021e-01</leafValues></_>
        <_>
          <internalNodes>
            0 -1 21 -9.3681201338768005e-02</internalNodes>
          <leafValues>
            -7.9132294654846191e-01 2.5160053372383118e-01</leafValues></_>
        <_>
          <internalNodes>
            0 -1 44 5.9952577576041222e-03</internalNodes>
          <leafValues>
            -2.8479826450347900e-01 7.1591556072235107e-01</leafValues></_>
        <_>
          <internalNodes>
            0 -1 74 -2.3850647266954184e-04</internalNodes>
          <leafValues>
            -5.5781304836273193e-01 3.6681023240089417e-01</leafValues></_>
        <_>
          <internalNodes>
            0 -1 14 -5.2838091505691409e-04</internalNodes>
          <leafValues>
            -3.7882488965988159e-01 4.6236640214920044e-01</leafValues></_></weakClassifiers></_>
    <!-- stage 6 -->
    <_>
      <maxWeakCount>11</maxWeakCount>
      <stageThreshold>-8.1277853250503540e-01</stageThreshold>
      <weakClassifiers>
        <_>
          <internalNodes>
            0 -1 65 3.9293829351663589e-02</internalNodes>
          <leafValues>
            -3.6144576966762543e-02 7.9104477167129517e-01</leafValues></_>
        <_>
          <internalNodes>
            0 -1 13 -5.5451765656471252e-03</internalNodes>
          <leafValues>
            3.2731655240058899e-01 -4.8629441857337952e-01</leafValues></_>
        <_>
          <internalNodes>
            0 -1 56 -5.3818896412849426e-02</internalNodes>
          <leafValues>
            7.3396289348602295e-01 -2.1960330009460449e-01</leafValues></_>
        <_>
          <internalNodes>
            0 -1 64 5.0844434648752213e-02</internalNodes>
          <leafValues>
            -2.3162549734115601e-01 7.1187853813171387e-01</leafValues></_>
        <_>
          <internalNodes>
            0 -1 36 -2.2626621648669243e-03</internalNodes>
          <leafValues>
            5.3094315528869629e-01 -2.3453746736049652e-01</leafValues></_>
        <_>
          <internalNodes>
            0 -1 68 -8.0684348940849304e-03</internalNodes>
          <leafValues>
            8.2861840724945068e-01 -2.2723665833473206e-01</leafValues></_>
        <_>
          <internalNodes>
            0 -1 61 2.2167689166963100e-03</internalNodes>
          <leafValues>
            -2.3007006943225861e-01 6.4003622531890869e-01</leafValues></_>
        <_>
          <internalNodes>
            0 -1 58 3.4237667918205261e-02</internalNodes>
          <leafValues>
            -2.0068781077861786e-01 7.2871416807174683e-01</leafValues></_>
        <_>
          <internalNodes>
            0 -1 79 3.9174960693344474e-04</internalNodes>
          <leafValues>
            3.6938223242759705e-01 -5.4615128040313721e-01</leafValues></_>
        <_>
          <internalNodes>
            0 -1 4 5.2026242017745972e-02</internalNodes>
          <leafValues>
            -2.4343591928482056e-01 8.7489151954650879e-01</leafValues></_>
        <_>
          <internalNodes>
            0 -1 30 -1.4754828810691833e-01</internalNodes>
          <leafValues>
            6.4585834741592407e-01 -2.2888520359992981e-01</leafValues></_></weakClassifiers></_>
    <!-- stage 7 -->
    <_>
      <maxWeakCount>9</maxWeakCount>
      <stageThreshold>-3.3018091320991516e-01</stageThreshold>
      <weakClassifiers>
        <_>
          <internalNodes>
            0 -1 32 1.2721803784370422e-01</internalNodes>
          <leafValues>
            3.5897437483072281e-02 8.8571429252624512e-01</leafValues></_>
        <_>
          <internalNodes>
            0 -1 12 5.8701820671558380e-04</internalNodes>
          <leafValues>
            3.4338486194610596e-01 -5.0590956211090088e-01</leafValues></_>
        <_>
          <internalNodes>
            0 -1 26 -2.2324186284095049e-03</internalNodes>
          <leafValues>
            5.3486394882202148e-01 -3.2518076896667480e-01</leafValues></_>
        <_>
          <internalNodes>
            0 -1 33 -2.1373452618718147e-02</internalNodes>
          <leafValues>
            -4.0846484899520874e-01 3.8675007224082947e-01</leafValues></_>
        <_>
          <internalNodes>
            0 -1 67 1.5242892550304532e-04</internalNodes>
          <leafValues>
            3.7643897533416748e-01 -4.9388208985328674e-01</leafValues></_>
        <_>
          <internalNodes>
            0 -1 51 1.3218350068200380e-04</internalNodes>
          <leafValues>
            3.6546367406845093e-01 -5.0290399789810181e-01</leafValues></_>
        <_>
          <internalNodes>
            0 -1 49 1.3101869821548462e-01</internalNodes>
          <leafValues>
            -2.0736284554004669e-01 8.8051742315292358e-01</leafValues></_>
        <_>
          <internalNodes>
            0 -1 18 6.2025425722822547e-04</internalNodes>
          <leafValues>
            3.1626638770103455e-01 -6.6672569513320923e-01</leafValues></_>
        <_>
          <internalNodes>
            0 -1 73 8.2257710164412856e-04</internalNodes>
          <leafValues>
            2.3979741334915161e-01 -6.9841277599334717e-01</leafValues></_></weakClassifiers></_>
    <!-- stage 8 -->
    <_>
      <maxWeakCount>10</maxWeakCount>
      <stageThreshold>-4.9917834997177124e-01</stageThreshold>
      <weakClassifiers>
        <_>
          <internalNodes>
            0 -1 8 -4.0522761642932892e-02</internalNodes>
          <leafValues>
            7.4825173616409302e-01 -4.4585987925529480e-02</leafValues></_>
        <_>
          <internalNodes>
            0 -1 19 6.5988942515105009e-04</internalNodes>
          <leafValues>
            2.8843596577644348e-01 -7.5412380695343018e-01</leafValues></_>
        <_>
          <internalNodes>
            0 -1 5 4.1450741700828075e-03</internalNodes>
          <leafValues>
            -2.7045559883117676e-01 6.7512458562850952e-01</leafValues></_>
        <_>
          <internalNodes>
            0 -1 75 -4.9786176532506943e-03</internalNodes>
          <leafValues>
            -3.9958888292312622e-01 4.2321801185607910e-01</leafValues></_>
        <_>
          <internalNodes>
            0 -1 45 3.6631016992032528e-03</internalNodes>
          <leafValues>
            2.6051822304725647e-01 -6.9982904195785522e-01</leafValues></_>
        <_>
          <internalNodes>
            0 -1 27 -2.7394140139222145e-02</internalNodes>
          <leafValues>
            6.0031086206436157e-01 -3.2833921909332275e-01</leafValues></_>
        <_>
          <internalNodes>
            0 -1 57 -9.8512764088809490e-04</internalNodes>
          <leafValues>
            5.3620064258575439e-01 -2.8254789113998413e-01</leafValues></_>
        <_>
          <internalNodes>
            0 -1 60 1.4324487419798970e-03</internalNodes>
          <leafValues>
            2.3730055987834930e-01 -7.5329631567001343e-01</leafValues></_>
        <_>
          <internalNodes>
            0 -1 0 -1.0335041442885995e-03</internalNodes>
          <leafValues>
            5.5002576112747192e-01 -3.4069427847862244e-01</leafValues></_>
        <_>
          <internalNodes>
            0 -1 16 9.4267859822139144e-05</internalNodes>
          <leafValues>
            4.5106965303421021e-01 -4.1205900907516479e-01</leafValues></_></weakClassifiers></_>
    <!-- stage 9 -->
    <_>
      <maxWeakCount>8</maxWeakCount>
      <stageThreshold>-4.7078883647918701e-01</stageThreshold>
      <weakClassifiers>
        <_>
          <internalNodes>
            0 -1 46 -7.4936427175998688e-02</internalNodes>
          <leafValues>
            -2.1428571641445160e-01 6.5957444906234741e-01</leafValues></_>
        <_>
          <internalNodes>
            0 -1 63 -3.7968906690366566e-04</internalNodes>
          <leafValues>
            5.6775754690170288e-01 -2.3676653206348419e-01</leafValues></_>
        <_>
          <internalNodes>
            0 -1 22 5.2998986095190048e-02</internalNodes>
          <leafValues>
            -3.7354663014411926e-01 4.7347667813301086e-01</leafValues></_>
        <_>
          <internalNodes>
            0 -1 66 -4.1867733001708984e-02</internalNodes>
          <leafValues>
            -8.9609670639038086e-01 1.8756461143493652e-01</leafValues></_>
        <_>
          <internalNodes>
            0 -1 17 1.2505089398473501e-04</internalNodes>
          <leafValues>
            2.3172330856323242e-01 -6.4281815290451050e-01</leafValues></_>
        <_>
          <internalNodes>
            0 -1 78 4.3321223929524422e-03</internalNodes>
          <leafValues>
            -2.1696475148200989e-01 7.6215714216232300e-01</leafValues></_>
        <_>
          <internalNodes>
            0 -1 39 6.0544470325112343e-03</internalNodes>
          <leafValues>
            -1.9335146248340607e-01 7.7245908975601196e-01</leafValues></_>
        <_>
          <internalNodes>
            0 -1 41 5.0464225932955742e-03</internalNodes>
          <leafValues>
            -2.2304776310920715e-01 5.6220030784606934e-01</leafValues></_></weakClassifiers></_></stages>
  <features>
    <_>
      <rects>
        <_>
          0 0 2 12 -1.</_>
        <_>
          1 0 1 12 2.</_></rects>
      <tilted>0</tilted></_>
    <_>
      <rects>
        <_>
          0 0 19 6 -1.</_>
        <_>
          0 3 19 3 2.</_></rects>
      <tilted>0</tilted></_>
    <_>
      <rects>
        <_>
          0 1 14 20 -1.</_>
        <_>
          0 1 7 10 2.</_>
        <_>
          7 11 7 10 2.</_></rects>
      <tilted>0</tilted></_>
    <_>
      <rects>
        <_>
          0 2 20 4 -1.</_>
        <_>
          0 4 20 2 2.</_></rects>
      <tilted>0</tilted></_>
    <_>
      <rects>
        <_>
          0 3 10 8 -1.</_>
        <_>
          5 3 5 8 2.</_></rects>
      <tilted>0</tilted></_>
    <_>
      <rects>
        <_>
          0 3 12 2 -1.</_>
        <_>
          0 3 6 1 2.</_>
        <_>
          6 4 6 1 2.</_></rects>
      <tilted>0</tilted></_>
    <_>
      <rects>
        <_>
          0 3 12 13 -1.</_>
        <_>
          6 3 6 13 2.</_></rects>
      <tilted>0</tilted></_>
    <_>
      <rects>
        <_>
          0 6 12 16 -1.</_>
        <_>
          6 6 6 16 2.</_></rects>
      <tilted>0</tilted></_>
    <_>
      <rects>
        <_>
          0 6 14 12 -1.</_>
        <_>
          0 6 7 6 2.</_>
        <_>
          7 12 7 6 2.</_></rects>
      <tilted>0</tilted></_>
    <_>
      <rects>
        <_>
          0 7 10 15 -1.</_>
        <_>
          5 7 5 15 2.</_></rects>
      <tilted>0</tilted></_>
    <_>
      <rects>
        <_>
          0 9 12 10 -1.</_>
        <_>
          0 9 6 5 2.</_>
        <_>
          6 14 6 5 2.</_></rects>
      <tilted>0</tilted></_>
    <_>
      <rects>
        <_>
          0 11 24 2 -1.</_>
        <_>
          0 12 24 1 2.</_></rects>
      <tilted>0</tilted></_>
    <_>
      <rects>
        <_>
          0 18 2 4 -1.</_>
        <_>
          1 18 1 4 2.</_></rects>
      <tilted>0</tilted></_>
    <_>
      <rects>
        <_>
          0 22 3 2 -1.</_>
        <_>
          1 22 1 2 2.</_></rects>
      <tilted>0</tilted></_>
    <_>
      <rects>
        <_>
          1 0 12 16 -1.</_>
        <_>
          1 0 6 8 2.</_>
        <_>
          7 8 6 8 2.</_></rects>
      <tilted>0</tilted></_>
    <_>
      <rects>
        <_>
          1 4 3 13 -1.</_>
        <_>
          2 4 1 13 2.</_></rects>
      <tilted>0</tilted></_>
    <_>
      <rects>
        <_>
          1 11 2 2 -1.</_>
        <_>
          1 11 1 1 2.</_>
        <_>
          2 12 1 1 2.</_></rects>
      <tilted>0</tilted></_>
    <_>
      <rects>
        <_>
          1 23 2 1 -1.</_>
        <_>
          2 23 1 1 2.</_></rects>
      <tilted>0</tilted></_>
    <_>
      <rects>
        <_>
          1 23 6 1 -1.</_>
        <_>
          4 23 3 1 2.</_></rects>
      <tilted>0</tilted></_>
    <_>
      <rects>
        <_>
          2 0 2 2 -1.</_>
        <_>
          2 0 1 1 2.</_>
        <_>
          3 1 1 1 2.</_></rects>
      <tilted>0</tilted></_>
    <_>
      <rects>
        <_>
          2 2 15 4 -1.</_>
        <_>
          2 4 15 2 2.</_></rects>
      <tilted>0</tilted></_>
    <_>
      <rects>
        <_>
          2 13 20 10 -1.</_>
        <_>
          2 18 20 5 2.</_></rects>
      <tilted>0</tilted></_>
    <_>
      <rects>
        <_>
          3 0 19 6 -1.</_>
        <_>
          3 3 19 3 2.</_></rects>
      <tilted>0</tilted></_>
    <_>
      <rects>
        <_>
          3 20 19 4 -1.</_>
        <_>
          3 22 19 2 2.</_></rects>
      <tilted>0</tilted></_>
    <_>
      <rects>
        <_>
          4 0 2 2 -1.</_>
        <_>
          4 0 1 1 2.</_>
        <_>
          5 1 1 1 2.</_></rects>
      <tilted>0</tilted></_>
    <_>
      <rects>
        <_>
          4 0 7 2 -1.</_>
        <_>
          4 1 7 1 2.</_></rects>
      <tilted>0</tilted></_>
    <_>
      <rects>
        <_>
          4 5 16 2 -1.</_>
        <_>
          4 6 16 1 2.</_></rects>
      <tilted>0</tilted></_>
    <_>
      <rects>
        <_>
          4 10 11 4 -1.</_>
        <_>
          4 12 11 2 2.</_></rects>
      <tilted>0</tilted></_>
    <_>
      <rects>
        <_>
          5 0 19 2 -1.</_>
        <_>
          5 1 19 1 2.</_></rects>
      <tilted>0</tilted></_>
    <_>
      <rects>
        <_>
          5 1 9 6 -1.</_>
        <_>
          5 4 9 3 2.</_></rects>
      <tilted>0</tilted></_>
    <_>
      <rects>
        <_>
          5 3 15 6 -1.</_>
        <_>
          10 3 5 6 2.</_></rects>
      <tilted>0</tilted></_>
    <_>
      <rects>
        <_>
          6 0 14 6 -1.</_>
        <_>
          6 3 14 3 2.</_></rects>
      <tilted>0</tilted></_>
    <_>
      <rects>
        <_>
          6 0 14 8 -1.</_>
        <_>
          6 4 14 4 2.</_></rects>
      <tilted>0</tilted></_>
    <_>
      <rects>
        <_>
          6 1 6 3 -1.</_>
        <_>
          6 2 6 1 2.</_></rects>
      <tilted>0</tilted></_>
    <_>
      <rects>
        <_>
          6 2 18 6 -1.</_>
        <_>
          6 5 18 3 2.</_></rects>
      <tilted>0</tilted></_>
    <_>
      <rects>
        <_>
          6 22 6 2 -1.</_>
        <_>
          6 22 3 1 2.</_>
        <_>
          9 23 3 1 2.</_></rects>
      <tilted>0</tilted></_>
    <_>
      <rects>
        <_>
          7 0 7 2 -1.</_>
        <_>
          7 1 7 1 2.</_></rects>
      <tilted>0</tilted></_>
    <_>
      <rects>
        <_>
          7 0 10 2 -1.</_>
        <_>
          7 1 10 1 2.</_></rects>
      <tilted>0</tilted></_>
    <_>
      <rects>
        <_>
          7 1 10 6 -1.</_>
        <_>
          7 4 10 3 2.</_></rects>
      <tilted>0</tilted></_>
    <_>
      <rects>
        <_>
          7 4 10 4 -1.</_>
        <_>
          7 4 5 2 2.</_>
        <_>
          12 6 5 2 2.</_></rects>
      <tilted>0</tilted></_>
    <_>
      <rects>
        <_>
          8 3 15 4 -1.</_>
        <_>
          13 3 5 4 2.</_></rects>
      <tilted>0</tilted></_>
    <_>
      <rects>
        <_>
          8 22 12 2 -1.</_>
        <_>
          8 23 12 1 2.</_></rects>
      <tilted>0</tilted></_>
    <_>
      <rects>
        <_>
          9 1 7 6 -1.</_>
        <_>
          9 4 7 3 2.</_></rects>
      <tilted>0</tilted></_>
    <_>
      <rects>
        <_>
          9 2 3 1 -1.</_>
        <_>
          10 2 1 1 2.</_></rects>
      <tilted>0</tilted></_>
    <_>
      <rects>
        <_>
          9 12 4 8 -1.</_>
        <_>
          11 12 2 8 2.</_></rects>
      <tilted>0</tilted></_>
    <_>
      <rects>
        <_>
          10 0 2 10 -1.</_>
        <_>
          11 0 1 10 2.</_></rects>
      <tilted>0</tilted></_>
    <_>
      <rects>
        <_>
          10 0 5 15 -1.</_>
        <_>
          10 5 5 5 2.</_></rects>
      <tilted>0</tilted></_>
    <_>
      <rects>
        <_>
          10 0 14 6 -1.</_>
        <_>
          10 0 7 3 2.</_>
        <_>
          17 3 7 3 2.</_></rects>
      <tilted>0</tilted></_>
    <_>
      <rects>
        <_>
          10 1 3 3 -1.</_>
        <_>
          11 1 1 3 2.</_></rects>
      <tilted>0</tilted></_>
    <_>
      <rects>
        <_>
          10 3 14 20 -1.</_>
        <_>
          10 3 7 10 2.</_>
        <_>
          17 13 7 10 2.</_></rects>
      <tilted>0</tilted></_>
    <_>
      <rects>
        <_>
          10 4 4 16 -1.</_>
        <_>
          10 12 4 8 2.</_></rects>
      <tilted>0</tilted></_>
    <_>
      <rects>
        <_>
          10 12 2 1 -1.</_>
        <_>
          11 12 1 1 2.</_></rects>
      <tilted>0</tilted></_>
    <_>
      <rects>
        <_>
          10 12 14 11 -1.</_>
        <_>
          17 12 7 11 2.</_></rects>
      <tilted>0</tilted></_>
    <_>
      <rects>
        <_>
          10 14 14 2 -1.</_>
        <_>
          17 14 7 2 2.</_></rects>
      <tilted>0</tilted></_>
    <_>
      <rects>
        <_>
          10 14 14 4 -1.</_>
        <_>
          17 14 7 4 2.</_></rects>
      <tilted>0</tilted></_>
    <_>
      <rects>
        <_>
          10 17 3 1 -1.</_>
        <_>
          11 17 1 1 2.</_></rects>
      <tilted>0</tilted></_>
    <_>
      <rects>
        <_>
          11 5 3 14 -1.</_>
        <_>
          11 12 3 7 2.</_></rects>
      <tilted>0</tilted></_>
    <_>
      <rects>
        <_>
          11 5 9 2 -1.</_>
        <_>
          11 6 9 1 2.</_></rects>
      <tilted>0</tilted></_>
    <_>
      <rects>
        <_>
          11 9 10 14 -1.</_>
        <_>
          11 9 5 7 2.</_>
        <_>
          16 16 5 7 2.</_></rects>
      <tilted>0</tilted></_>
    <_>
      <rects>
        <_>
          11 15 3 1 -1.</_>
        <_>
          12 15 1 1 2.</_></rects>
      <tilted>0</tilted></_>
    <_>
      <rects>
        <_>
          12 6 2 3 -1.</_>
        <_>
          13 6 1 3 2.</_></rects>
      <tilted>0</tilted></_>
    <_>
      <rects>
        <_>
          12 22 10 2 -1.</_>
        <_>
          12 22 5 1 2.</_>
        <_>
          17 23 5 1 2.</_></rects>
      <tilted>0</tilted></_>
    <_>
      <rects>
        <_>
          12 23 2 1 -1.</_>
        <_>
          13 23 1 1 2.</_></rects>
      <tilted>0</tilted></_>
    <_>
      <rects>
        <_>
          13 0 1 2 -1.</_>
        <_>
          13 1 1 1 2.</_></rects>
      <tilted>0</tilted></_>
    <_>
      <rects>
        <_>
          14 5 8 15 -1.</_>
        <_>
          18 5 4 15 2.</_></rects>
      <tilted>0</tilted></_>
    <_>
      <rects>
        <_>
          14 5 10 16 -1.</_>
        <_>
          14 5 5 8 2.</_>
        <_>
          19 13 5 8 2.</_></rects>
      <tilted>0</tilted></_>
    <_>
      <rects>
        <_>
          17 4 6 3 -1.</_>
        <_>
          19 4 2 3 2.</_></rects>
      <tilted>0</tilted></_>
    <_>
      <rects>
        <_>
          17 6 1 2 -1.</_>
        <_>
          17 7 1 1 2.</_></rects>
      <tilted>0</tilted></_>
    <_>
      <rects>
        <_>
          17 7 6 8 -1.</_>
        <_>
          17 7 3 4 2.</_>
        <_>
          20 11 3 4 2.</_></rects>
      <tilted>0</tilted></_>
    <_>
      <rects>
        <_>
          17 10 4 9 -1.</_>
        <_>
          19 10 2 9 2.</_></rects>
      <tilted>0</tilted></_>
    <_>
      <rects>
        <_>
          17 22 4 2 -1.</_>
        <_>
          17 23 4 1 2.</_></rects>
      <tilted>0</tilted></_>
    <_>
      <rects>
        <_>
          18 0 6 12 -1.</_>
        <_>
          18 4 6 4 2.</_></rects>
      <tilted>0</tilted></_>
    <_>
      <rects>
        <_>
          18 23 2 1 -1.</_>
        <_>
          19 23 1 1 2.</_></rects>
      <tilted>0</tilted></_>
    <_>
      <rects>
        <_>
          19 7 2 2 -1.</_>
        <_>
          19 7 1 1 2.</_>
        <_>
          20 8 1 1 2.</_></rects>
      <tilted>0</tilted></_>
    <_>
      <rects>
        <_>
          19 23 4 1 -1.</_>
        <_>
          21 23 2 1 2.</_></rects>
      <tilted>0</tilted></_>
    <_>
      <rects>
        <_>
          21 6 3 1 -1.</_>
        <_>
          22 6 1 1 2.</_></rects>
      <tilted>0</tilted></_>
    <_>
      <rects>
        <_>
          21 21 3 3 -1.</_>
        <_>
          21 22 3 1 2.</_></rects>
      <tilted>0</tilted></_>
    <_>
      <rects>
        <_>
          22 2 2 22 -1.</_>
        <_>
          22 2 1 11 2.</_>
        <_>
          23 13 1 11 2.</_></rects>
      <tilted>0</tilted></_>
    <_>
      <rects>
        <_>
          22 3 2 4 -1.</_>
        <_>
          22 5 2 2 2.</_></rects>
      <tilted>0</tilted></_>
    <_>
      <rects>
        <_>
          22 14 2 4 -1.</_>
        <_>
          22 14 1 2 2.</_>
        <_>
          23 16 1 2 2.</_></rects>
      <tilted>0</tilted></_></features></cascade>
</opencv_storage>
