<?xml version="1.0"?>
<opencv_storage>
<stage0>
  <maxWeakCount>5</maxWeakCount>
  <stageThreshold>-4.6459481120109558e-01</stageThreshold>
  <weakClassifiers>
    <_>
      <internalNodes>
        0 -1 3044 2.3464018478989601e-02</internalNodes>
      <leafValues>
        -2.6315790414810181e-01 8.0838322639465332e-01</leafValues></_>
    <_>
      <internalNodes>
        0 -1 112732 1.2654675170779228e-02</internalNodes>
      <leafValues>
        -4.7446468472480774e-01 6.2708342075347900e-01</leafValues></_>
    <_>
      <internalNodes>
        0 -1 8405 -2.4570899084210396e-02</internalNodes>
      <leafValues>
        7.7601617574691772e-01 -2.9570001363754272e-01</leafValues></_>
    <_>
      <internalNodes>
        0 -1 161173 -7.9248249530792236e-03</internalNodes>
      <leafValues>
        2.8228554129600525e-01 -8.3406144380569458e-01</leafValues></_>
    <_>
      <internalNodes>
        0 -1 99949 -5.7719526812434196e-03</internalNodes>
      <leafValues>
        -8.1510585546493530e-01 3.1263422966003418e-01</leafValues></_></weakClassifiers></stage0>
</opencv_storage>
