<?xml version="1.0"?>
<opencv_storage>
<stage6>
  <maxWeakCount>11</maxWeakCount>
  <stageThreshold>-8.1277853250503540e-01</stageThreshold>
  <weakClassifiers>
    <_>
      <internalNodes>
        0 -1 136054 3.9293829351663589e-02</internalNodes>
      <leafValues>
        -3.6144576966762543e-02 7.9104477167129517e-01</leafValues></_>
    <_>
      <internalNodes>
        0 -1 13301 -5.5451765656471252e-03</internalNodes>
      <leafValues>
        3.2731655240058899e-01 -4.8629441857337952e-01</leafValues></_>
    <_>
      <internalNodes>
        0 -1 117148 -5.3818896412849426e-02</internalNodes>
      <leafValues>
        7.3396289348602295e-01 -2.1960330009460449e-01</leafValues></_>
    <_>
      <internalNodes>
        0 -1 136020 5.0844434648752213e-02</internalNodes>
      <leafValues>
        -2.3162549734115601e-01 7.1187853813171387e-01</leafValues></_>
    <_>
      <internalNodes>
        0 -1 81217 -2.2626621648669243e-03</internalNodes>
      <leafValues>
        5.3094315528869629e-01 -2.3453746736049652e-01</leafValues></_>
    <_>
      <internalNodes>
        0 -1 150209 -8.0684348940849304e-03</internalNodes>
      <leafValues>
        8.2861840724945068e-01 -2.2723665833473206e-01</leafValues></_>
    <_>
      <internalNodes>
        0 -1 128018 2.2167689166963100e-03</internalNodes>
      <leafValues>
        -2.3007006943225861e-01 6.4003622531890869e-01</leafValues></_>
    <_>
      <internalNodes>
        0 -1 118846 3.4237667918205261e-02</internalNodes>
      <leafValues>
        -2.0068781077861786e-01 7.2871416807174683e-01</leafValues></_>
    <_>
      <internalNodes>
        0 -1 161947 3.9174960693344474e-04</internalNodes>
      <leafValues>
        3.6938223242759705e-01 -5.4615128040313721e-01</leafValues></_>
    <_>
      <internalNodes>
        0 -1 3443 5.2026242017745972e-02</internalNodes>
      <leafValues>
        -2.4343591928482056e-01 8.7489151954650879e-01</leafValues></_>
    <_>
      <internalNodes>
        0 -1 63144 -1.4754828810691833e-01</internalNodes>
      <leafValues>
        6.4585834741592407e-01 -2.2888520359992981e-01</leafValues></_></weakClassifiers></stage6>
</opencv_storage>
