<?xml version="1.0"?>
<opencv_storage>
<stage7>
  <maxWeakCount>9</maxWeakCount>
  <stageThreshold>-3.3018091320991516e-01</stageThreshold>
  <weakClassifiers>
    <_>
      <internalNodes>
        0 -1 71450 1.2721803784370422e-01</internalNodes>
      <leafValues>
        3.5897437483072281e-02 8.8571429252624512e-01</leafValues></_>
    <_>
      <internalNodes>
        0 -1 12542 5.8701820671558380e-04</internalNodes>
      <leafValues>
        3.4338486194610596e-01 -5.0590956211090088e-01</leafValues></_>
    <_>
      <internalNodes>
        0 -1 54175 -2.2324186284095049e-03</internalNodes>
      <leafValues>
        5.3486394882202148e-01 -3.2518076896667480e-01</leafValues></_>
    <_>
      <internalNodes>
        0 -1 71922 -2.1373452618718147e-02</internalNodes>
      <leafValues>
        -4.0846484899520874e-01 3.8675007224082947e-01</leafValues></_>
    <_>
      <internalNodes>
        0 -1 149863 1.5242892550304532e-04</internalNodes>
      <leafValues>
        3.7643897533416748e-01 -4.9388208985328674e-01</leafValues></_>
    <_>
      <internalNodes>
        0 -1 112490 1.3218350068200380e-04</internalNodes>
      <leafValues>
        3.6546367406845093e-01 -5.0290399789810181e-01</leafValues></_>
    <_>
      <internalNodes>
        0 -1 108989 1.3101869821548462e-01</internalNodes>
      <leafValues>
        -2.0736284554004669e-01 8.8051742315292358e-01</leafValues></_>
    <_>
      <internalNodes>
        0 -1 25790 6.2025425722822547e-04</internalNodes>
      <leafValues>
        3.1626638770103455e-01 -6.6672569513320923e-01</leafValues></_>
    <_>
      <internalNodes>
        0 -1 156416 8.2257710164412856e-04</internalNodes>
      <leafValues>
        2.3979741334915161e-01 -6.9841277599334717e-01</leafValues></_></weakClassifiers></stage7>
</opencv_storage>
