<?xml version="1.0"?>
<opencv_storage>
<stage3>
  <maxWeakCount>9</maxWeakCount>
  <stageThreshold>-1.0292840003967285e+00</stageThreshold>
  <weakClassifiers>
    <_>
      <internalNodes>
        0 -1 82061 3.0790450051426888e-02</internalNodes>
      <leafValues>
        -2.0000000298023224e-01 7.6969695091247559e-01</leafValues></_>
    <_>
      <internalNodes>
        0 -1 113262 3.5484433174133301e-02</internalNodes>
      <leafValues>
        -2.3321434855461121e-01 6.7152786254882813e-01</leafValues></_>
    <_>
      <internalNodes>
        0 -1 81348 -4.1593839414417744e-03</internalNodes>
      <leafValues>
        6.4237272739410400e-01 -2.7978235483169556e-01</leafValues></_>
    <_>
      <internalNodes>
        0 -1 151875 2.8323235455900431e-03</internalNodes>
      <leafValues>
        -2.6432272791862488e-01 7.6335376501083374e-01</leafValues></_>
    <_>
      <internalNodes>
        0 -1 92182 -8.5781574249267578e-02</internalNodes>
      <leafValues>
        6.7610424757003784e-01 -2.8011009097099304e-01</leafValues></_>
    <_>
      <internalNodes>
        0 -1 107243 -2.3816283792257309e-02</internalNodes>
      <leafValues>
        7.4954098463058472e-01 -2.0363119244575500e-01</leafValues></_>
    <_>
      <internalNodes>
        0 -1 155227 -4.1849889385048300e-05</internalNodes>
      <leafValues>
        -4.1924360394477844e-01 3.7594133615493774e-01</leafValues></_>
    <_>
      <internalNodes>
        0 -1 49480 4.0160951903089881e-04</internalNodes>
      <leafValues>
        2.4769677221775055e-01 -6.9392269849777222e-01</leafValues></_>
    <_>
      <internalNodes>
        0 -1 6186 -6.2938138842582703e-02</internalNodes>
      <leafValues>
        6.0073471069335938e-01 -3.1883153319358826e-01</leafValues></_></weakClassifiers></stage3>
</opencv_storage>
