<?xml version="1.0"?>
<opencv_storage>
<stage2>
  <maxWeakCount>6</maxWeakCount>
  <stageThreshold>-1.0432507991790771e+00</stageThreshold>
  <weakClassifiers>
    <_>
      <internalNodes>
        0 -1 107440 -1.6144787892699242e-02</internalNodes>
      <leafValues>
        -7.7464789152145386e-01 6.7685592174530029e-01</leafValues></_>
    <_>
      <internalNodes>
        0 -1 988 5.1152620464563370e-02</internalNodes>
      <leafValues>
        -4.0867832303047180e-01 7.2238522768020630e-01</leafValues></_>
    <_>
      <internalNodes>
        0 -1 120360 -6.5348409116268158e-03</internalNodes>
      <leafValues>
        -7.8804290294647217e-01 3.5043296217918396e-01</leafValues></_>
    <_>
      <internalNodes>
        0 -1 9998 -6.9494699127972126e-03</internalNodes>
      <leafValues>
        8.2380533218383789e-01 -2.8898069262504578e-01</leafValues></_>
    <_>
      <internalNodes>
        0 -1 61264 -6.4345761202275753e-03</internalNodes>
      <leafValues>
        6.1482799053192139e-01 -3.7701955437660217e-01</leafValues></_>
    <_>
      <internalNodes>
        0 -1 152147 -1.1305792629718781e-01</internalNodes>
      <leafValues>
        -5.7850396633148193e-01 4.5564270019531250e-01</leafValues></_></weakClassifiers></stage2>
</opencv_storage>
